digraph Tree {
node [shape=box] ;
0 [label="Income <= 113.5\ngini = 0.176\nsamples = 4000\nvalue = [3611, 389]"] ;
1 [label="CCAvg <= 2.95\ngini = 0.039\nsamples = 3206\nvalue = [3142, 64]"] ;
0 -> 1 [labeldistance=2.5, labelangle=45, headlabel="True"] ;
2 [label="Income <= 106.5\ngini = 0.008\nsamples = 2963\nvalue = [2951, 12]"] ;
1 -> 2 ;
3 [label="gini = 0.0\nsamples = 2885\nvalue = [2885, 0]"] ;
2 -> 3 ;
4 [label="Family <= 3.5\ngini = 0.26\nsamples = 78\nvalue = [66, 12]"] ;
2 -> 4 ;
5 [label="Education <= 2.5\ngini = 0.163\nsamples = 56\nvalue = [51, 5]"] ;
4 -> 5 ;
6 [label="Education <= 1.5\ngini = 0.044\nsamples = 44\nvalue = [43, 1]"] ;
5 -> 6 ;
7 [label="gini = 0.0\nsamples = 34\nvalue = [34, 0]"] ;
6 -> 7 ;
8 [label="CCAvg <= 1.45\ngini = 0.18\nsamples = 10\nvalue = [9, 1]"] ;
6 -> 8 ;
9 [label="CCAvg <= 0.95\ngini = 0.5\nsamples = 2\nvalue = [1, 1]"] ;
8 -> 9 ;
10 [label="gini = 0.0\nsamples = 1\nvalue = [1, 0]"] ;
9 -> 10 ;
11 [label="gini = 0.0\nsamples = 1\nvalue = [0, 1]"] ;
9 -> 11 ;
12 [label="gini = 0.0\nsamples = 8\nvalue = [8, 0]"] ;
8 -> 12 ;
13 [label="Family <= 1.5\ngini = 0.444\nsamples = 12\nvalue = [8, 4]"] ;
5 -> 13 ;
14 [label="gini = 0.0\nsamples = 5\nvalue = [5, 0]"] ;
13 -> 14 ;
15 [label="CCAvg <= 1.0\ngini = 0.49\nsamples = 7\nvalue = [3, 4]"] ;
13 -> 15 ;
16 [label="gini = 0.0\nsamples = 2\nvalue = [0, 2]"] ;
15 -> 16 ;
17 [label="CCAvg <= 2.125\ngini = 0.48\nsamples = 5\nvalue = [3, 2]"] ;
15 -> 17 ;
18 [label="gini = 0.375\nsamples = 4\nvalue = [3, 1]"] ;
17 -> 18 ;
19 [label="gini = 0.0\nsamples = 1\nvalue = [0, 1]"] ;
17 -> 19 ;
20 [label="CCAvg <= 1.15\ngini = 0.434\nsamples = 22\nvalue = [15, 7]"] ;
4 -> 20 ;
21 [label="gini = 0.0\nsamples = 3\nvalue = [0, 3]"] ;
20 -> 21 ;
22 [label="Education <= 2.5\ngini = 0.332\nsamples = 19\nvalue = [15, 4]"] ;
20 -> 22 ;
23 [label="Income <= 112.5\ngini = 0.5\nsamples = 6\nvalue = [3, 3]"] ;
22 -> 23 ;
24 [label="Education <= 1.5\ngini = 0.48\nsamples = 5\nvalue = [3, 2]"] ;
23 -> 24 ;
25 [label="gini = 0.0\nsamples = 1\nvalue = [0, 1]"] ;
24 -> 25 ;
26 [label="gini = 0.375\nsamples = 4\nvalue = [3, 1]"] ;
24 -> 26 ;
27 [label="gini = 0.0\nsamples = 1\nvalue = [0, 1]"] ;
23 -> 27 ;
28 [label="CCAvg <= 2.45\ngini = 0.142\nsamples = 13\nvalue = [12, 1]"] ;
22 -> 28 ;
29 [label="gini = 0.0\nsamples = 12\nvalue = [12, 0]"] ;
28 -> 29 ;
30 [label="gini = 0.0\nsamples = 1\nvalue = [0, 1]"] ;
28 -> 30 ;
31 [label="Income <= 90.5\ngini = 0.336\nsamples = 243\nvalue = [191, 52]"] ;
1 -> 31 ;
32 [label="CCAvg <= 3.5\ngini = 0.183\nsamples = 137\nvalue = [123, 14]"] ;
31 -> 32 ;
33 [label="Income <= 82.5\ngini = 0.329\nsamples = 53\nvalue = [42, 11]"] ;
32 -> 33 ;
34 [label="CCAvg <= 3.25\ngini = 0.234\nsamples = 37\nvalue = [32, 5]"] ;
33 -> 34 ;
35 [label="Family <= 3.5\ngini = 0.175\nsamples = 31\nvalue = [28, 3]"] ;
34 -> 35 ;
36 [label="Family <= 1.5\ngini = 0.124\nsamples = 30\nvalue = [28, 2]"] ;
35 -> 36 ;
37 [label="gini = 0.444\nsamples = 3\nvalue = [2, 1]"] ;
36 -> 37 ;
38 [label="gini = 0.071\nsamples = 27\nvalue = [26, 1]"] ;
36 -> 38 ;
39 [label="gini = 0.0\nsamples = 1\nvalue = [0, 1]"] ;
35 -> 39 ;
40 [label="Family <= 3.5\ngini = 0.444\nsamples = 6\nvalue = [4, 2]"] ;
34 -> 40 ;
41 [label="gini = 0.0\nsamples = 2\nvalue = [0, 2]"] ;
40 -> 41 ;
42 [label="gini = 0.0\nsamples = 4\nvalue = [4, 0]"] ;
40 -> 42 ;
43 [label="CCAvg <= 3.05\ngini = 0.469\nsamples = 16\nvalue = [10, 6]"] ;
33 -> 43 ;
44 [label="gini = 0.0\nsamples = 4\nvalue = [4, 0]"] ;
43 -> 44 ;
45 [label="CCAvg <= 3.15\ngini = 0.5\nsamples = 12\nvalue = [6, 6]"] ;
43 -> 45 ;
46 [label="gini = 0.0\nsamples = 3\nvalue = [0, 3]"] ;
45 -> 46 ;
47 [label="Education <= 2.5\ngini = 0.444\nsamples = 9\nvalue = [6, 3]"] ;
45 -> 47 ;
48 [label="gini = 0.245\nsamples = 7\nvalue = [6, 1]"] ;
47 -> 48 ;
49 [label="gini = 0.0\nsamples = 2\nvalue = [0, 2]"] ;
47 -> 49 ;
50 [label="Income <= 88.5\ngini = 0.069\nsamples = 84\nvalue = [81, 3]"] ;
32 -> 50 ;
51 [label="Income <= 81.5\ngini = 0.049\nsamples = 80\nvalue = [78, 2]"] ;
50 -> 51 ;
52 [label="gini = 0.0\nsamples = 53\nvalue = [53, 0]"] ;
51 -> 52 ;
53 [label="Family <= 2.5\ngini = 0.137\nsamples = 27\nvalue = [25, 2]"] ;
51 -> 53 ;
54 [label="gini = 0.0\nsamples = 19\nvalue = [19, 0]"] ;
53 -> 54 ;
55 [label="CCAvg <= 3.95\ngini = 0.375\nsamples = 8\nvalue = [6, 2]"] ;
53 -> 55 ;
56 [label="gini = 0.444\nsamples = 3\nvalue = [1, 2]"] ;
55 -> 56 ;
57 [label="gini = 0.0\nsamples = 5\nvalue = [5, 0]"] ;
55 -> 57 ;
58 [label="Income <= 89.5\ngini = 0.375\nsamples = 4\nvalue = [3, 1]"] ;
50 -> 58 ;
59 [label="CCAvg <= 3.95\ngini = 0.5\nsamples = 2\nvalue = [1, 1]"] ;
58 -> 59 ;
60 [label="gini = 0.0\nsamples = 1\nvalue = [1, 0]"] ;
59 -> 60 ;
61 [label="gini = 0.0\nsamples = 1\nvalue = [0, 1]"] ;
59 -> 61 ;
62 [label="gini = 0.0\nsamples = 2\nvalue = [2, 0]"] ;
58 -> 62 ;
63 [label="Education <= 1.5\ngini = 0.46\nsamples = 106\nvalue = [68, 38]"] ;
31 -> 63 ;
64 [label="CCAvg <= 3.25\ngini = 0.255\nsamples = 60\nvalue = [51, 9]"] ;
63 -> 64 ;
65 [label="Family <= 2.5\ngini = 0.375\nsamples = 4\nvalue = [1, 3]"] ;
64 -> 65 ;
66 [label="gini = 0.0\nsamples = 1\nvalue = [1, 0]"] ;
65 -> 66 ;
67 [label="gini = 0.0\nsamples = 3\nvalue = [0, 3]"] ;
65 -> 67 ;
68 [label="CCAvg <= 4.25\ngini = 0.191\nsamples = 56\nvalue = [50, 6]"] ;
64 -> 68 ;
69 [label="Family <= 2.5\ngini = 0.363\nsamples = 21\nvalue = [16, 5]"] ;
68 -> 69 ;
70 [label="CCAvg <= 4.1\ngini = 0.266\nsamples = 19\nvalue = [16, 3]"] ;
69 -> 70 ;
71 [label="gini = 0.198\nsamples = 18\nvalue = [16, 2]"] ;
70 -> 71 ;
72 [label="gini = 0.0\nsamples = 1\nvalue = [0, 1]"] ;
70 -> 72 ;
73 [label="gini = 0.0\nsamples = 2\nvalue = [0, 2]"] ;
69 -> 73 ;
74 [label="CCAvg <= 4.5\ngini = 0.056\nsamples = 35\nvalue = [34, 1]"] ;
68 -> 74 ;
75 [label="Income <= 100.0\ngini = 0.18\nsamples = 10\nvalue = [9, 1]"] ;
74 -> 75 ;
76 [label="gini = 0.375\nsamples = 4\nvalue = [3, 1]"] ;
75 -> 76 ;
77 [label="gini = 0.0\nsamples = 6\nvalue = [6, 0]"] ;
75 -> 77 ;
78 [label="gini = 0.0\nsamples = 25\nvalue = [25, 0]"] ;
74 -> 78 ;
79 [label="Family <= 2.5\ngini = 0.466\nsamples = 46\nvalue = [17, 29]"] ;
63 -> 79 ;
80 [label="Income <= 109.0\ngini = 0.499\nsamples = 27\nvalue = [14, 13]"] ;
79 -> 80 ;
81 [label="Education <= 2.5\ngini = 0.463\nsamples = 22\nvalue = [14, 8]"] ;
80 -> 81 ;
82 [label="gini = 0.0\nsamples = 3\nvalue = [0, 3]"] ;
81 -> 82 ;
83 [label="CCAvg <= 3.95\ngini = 0.388\nsamples = 19\nvalue = [14, 5]"] ;
81 -> 83 ;
84 [label="gini = 0.49\nsamples = 7\nvalue = [3, 4]"] ;
83 -> 84 ;
85 [label="gini = 0.153\nsamples = 12\nvalue = [11, 1]"] ;
83 -> 85 ;
86 [label="gini = 0.0\nsamples = 5\nvalue = [0, 5]"] ;
80 -> 86 ;
87 [label="CCAvg <= 3.45\ngini = 0.266\nsamples = 19\nvalue = [3, 16]"] ;
79 -> 87 ;
88 [label="Education <= 2.5\ngini = 0.48\nsamples = 5\nvalue = [3, 2]"] ;
87 -> 88 ;
89 [label="CCAvg <= 3.2\ngini = 0.375\nsamples = 4\nvalue = [3, 1]"] ;
88 -> 89 ;
90 [label="gini = 0.0\nsamples = 1\nvalue = [0, 1]"] ;
89 -> 90 ;
91 [label="gini = 0.0\nsamples = 3\nvalue = [3, 0]"] ;
89 -> 91 ;
92 [label="gini = 0.0\nsamples = 1\nvalue = [0, 1]"] ;
88 -> 92 ;
93 [label="gini = 0.0\nsamples = 14\nvalue = [0, 14]"] ;
87 -> 93 ;
94 [label="Education <= 1.5\ngini = 0.484\nsamples = 794\nvalue = [469, 325]"] ;
0 -> 94 [labeldistance=2.5, labelangle=-45, headlabel="False"] ;
95 [label="Family <= 2.5\ngini = 0.189\nsamples = 510\nvalue = [456, 54]"] ;
94 -> 95 ;
96 [label="gini = 0.0\nsamples = 456\nvalue = [456, 0]"] ;
95 -> 96 ;
97 [label="gini = 0.0\nsamples = 54\nvalue = [0, 54]"] ;
95 -> 97 ;
98 [label="Income <= 116.5\ngini = 0.087\nsamples = 284\nvalue = [13, 271]"] ;
94 -> 98 ;
99 [label="CCAvg <= 1.95\ngini = 0.497\nsamples = 24\nvalue = [13, 11]"] ;
98 -> 99 ;
100 [label="CCAvg <= 0.55\ngini = 0.198\nsamples = 9\nvalue = [8, 1]"] ;
99 -> 100 ;
101 [label="gini = 0.0\nsamples = 1\nvalue = [0, 1]"] ;
100 -> 101 ;
102 [label="gini = 0.0\nsamples = 8\nvalue = [8, 0]"] ;
100 -> 102 ;
103 [label="CCAvg <= 4.0\ngini = 0.444\nsamples = 15\nvalue = [5, 10]"] ;
99 -> 103 ;
104 [label="CCAvg <= 3.35\ngini = 0.496\nsamples = 11\nvalue = [5, 6]"] ;
103 -> 104 ;
105 [label="CCAvg <= 2.8\ngini = 0.444\nsamples = 9\nvalue = [3, 6]"] ;
104 -> 105 ;
106 [label="CCAvg <= 2.3\ngini = 0.5\nsamples = 6\nvalue = [3, 3]"] ;
105 -> 106 ;
107 [label="gini = 0.0\nsamples = 1\nvalue = [0, 1]"] ;
106 -> 107 ;
108 [label="gini = 0.48\nsamples = 5\nvalue = [3, 2]"] ;
106 -> 108 ;
109 [label="gini = 0.0\nsamples = 3\nvalue = [0, 3]"] ;
105 -> 109 ;
110 [label="gini = 0.0\nsamples = 2\nvalue = [2, 0]"] ;
104 -> 110 ;
111 [label="gini = 0.0\nsamples = 4\nvalue = [0, 4]"] ;
103 -> 111 ;
112 [label="gini = 0.0\nsamples = 260\nvalue = [0, 260]"] ;
98 -> 112 ;
}