digraph Tree {
node [shape=box] ;
0 [label="TotalWorkingYears <= 1.5\ngini = 0.27\nsamples = 3528\nvalue = [2960, 568]"] ;
1 [label="Age <= 26.5\ngini = 0.5\nsamples = 218\nvalue = [111, 107]"] ;
0 -> 1 [labeldistance=2.5, labelangle=45, headlabel="True"] ;
2 [label="MonthlyIncome <= 112610.0\ngini = 0.454\nsamples = 115\nvalue = [40, 75]"] ;
1 -> 2 ;
3 [label="MonthlyIncome <= 19425.0\ngini = 0.399\nsamples = 98\nvalue = [27, 71]"] ;
2 -> 3 ;
4 [label="gini = 0.0\nsamples = 5\nvalue = [5, 0]"] ;
3 -> 4 ;
5 [label="DistanceFromHome <= 3.5\ngini = 0.361\nsamples = 93\nvalue = [22, 71]"] ;
3 -> 5 ;
6 [label="PercentSalaryHike <= 20.0\ngini = 0.159\nsamples = 46\nvalue = [4, 42]"] ;
5 -> 6 ;
7 [label="Age <= 23.5\ngini = 0.091\nsamples = 42\nvalue = [2, 40]"] ;
6 -> 7 ;
8 [label="gini = 0.0\nsamples = 35\nvalue = [0, 35]"] ;
7 -> 8 ;
9 [label="Age <= 24.5\ngini = 0.408\nsamples = 7\nvalue = [2, 5]"] ;
7 -> 9 ;
10 [label="gini = 0.0\nsamples = 2\nvalue = [2, 0]"] ;
9 -> 10 ;
11 [label="gini = 0.0\nsamples = 5\nvalue = [0, 5]"] ;
9 -> 11 ;
12 [label="MonthlyIncome <= 25730.0\ngini = 0.5\nsamples = 4\nvalue = [2, 2]"] ;
6 -> 12 ;
13 [label="gini = 0.0\nsamples = 2\nvalue = [0, 2]"] ;
12 -> 13 ;
14 [label="gini = 0.0\nsamples = 2\nvalue = [2, 0]"] ;
12 -> 14 ;
15 [label="PercentSalaryHike <= 18.0\ngini = 0.473\nsamples = 47\nvalue = [18, 29]"] ;
5 -> 15 ;
16 [label="MonthlyIncome <= 29685.0\ngini = 0.492\nsamples = 32\nvalue = [18, 14]"] ;
15 -> 16 ;
17 [label="PercentSalaryHike <= 12.5\ngini = 0.346\nsamples = 9\nvalue = [2, 7]"] ;
16 -> 17 ;
18 [label="gini = 0.0\nsamples = 7\nvalue = [0, 7]"] ;
17 -> 18 ;
19 [label="gini = 0.0\nsamples = 2\nvalue = [2, 0]"] ;
17 -> 19 ;
20 [label="MonthlyIncome <= 52665.0\ngini = 0.423\nsamples = 23\nvalue = [16, 7]"] ;
16 -> 20 ;
21 [label="gini = 0.0\nsamples = 12\nvalue = [12, 0]"] ;
20 -> 21 ;
22 [label="Age <= 21.5\ngini = 0.463\nsamples = 11\nvalue = [4, 7]"] ;
20 -> 22 ;
23 [label="gini = 0.0\nsamples = 5\nvalue = [0, 5]"] ;
22 -> 23 ;
24 [label="Age <= 24.0\ngini = 0.444\nsamples = 6\nvalue = [4, 2]"] ;
22 -> 24 ;
25 [label="gini = 0.0\nsamples = 2\nvalue = [2, 0]"] ;
24 -> 25 ;
26 [label="gini = 0.5\nsamples = 4\nvalue = [2, 2]"] ;
24 -> 26 ;
27 [label="gini = 0.0\nsamples = 15\nvalue = [0, 15]"] ;
15 -> 27 ;
28 [label="DistanceFromHome <= 5.0\ngini = 0.36\nsamples = 17\nvalue = [13, 4]"] ;
2 -> 28 ;
29 [label="gini = 0.0\nsamples = 11\nvalue = [11, 0]"] ;
28 -> 29 ;
30 [label="DistanceFromHome <= 19.0\ngini = 0.444\nsamples = 6\nvalue = [2, 4]"] ;
28 -> 30 ;
31 [label="gini = 0.0\nsamples = 4\nvalue = [0, 4]"] ;
30 -> 31 ;
32 [label="gini = 0.0\nsamples = 2\nvalue = [2, 0]"] ;
30 -> 32 ;
33 [label="DistanceFromHome <= 12.5\ngini = 0.428\nsamples = 103\nvalue = [71, 32]"] ;
1 -> 33 ;
34 [label="MonthlyIncome <= 34475.0\ngini = 0.38\nsamples = 94\nvalue = [70, 24]"] ;
33 -> 34 ;
35 [label="MonthlyIncome <= 27270.0\ngini = 0.498\nsamples = 32\nvalue = [17, 15]"] ;
34 -> 35 ;
36 [label="DistanceFromHome <= 2.5\ngini = 0.351\nsamples = 22\nvalue = [17, 5]"] ;
35 -> 36 ;
37 [label="Age <= 27.5\ngini = 0.473\nsamples = 13\nvalue = [8, 5]"] ;
36 -> 37 ;
38 [label="gini = 0.0\nsamples = 6\nvalue = [6, 0]"] ;
37 -> 38 ;
39 [label="PercentSalaryHike <= 20.5\ngini = 0.408\nsamples = 7\nvalue = [2, 5]"] ;
37 -> 39 ;
40 [label="gini = 0.0\nsamples = 5\nvalue = [0, 5]"] ;
39 -> 40 ;
41 [label="gini = 0.0\nsamples = 2\nvalue = [2, 0]"] ;
39 -> 41 ;
42 [label="gini = 0.0\nsamples = 9\nvalue = [9, 0]"] ;
36 -> 42 ;
43 [label="gini = 0.0\nsamples = 10\nvalue = [0, 10]"] ;
35 -> 43 ;
44 [label="MonthlyIncome <= 66175.0\ngini = 0.248\nsamples = 62\nvalue = [53, 9]"] ;
34 -> 44 ;
45 [label="gini = 0.0\nsamples = 31\nvalue = [31, 0]"] ;
44 -> 45 ;
46 [label="MonthlyIncome <= 106615.0\ngini = 0.412\nsamples = 31\nvalue = [22, 9]"] ;
44 -> 46 ;
47 [label="PercentSalaryHike <= 12.0\ngini = 0.375\nsamples = 12\nvalue = [3, 9]"] ;
46 -> 47 ;
48 [label="gini = 0.0\nsamples = 3\nvalue = [3, 0]"] ;
47 -> 48 ;
49 [label="gini = 0.0\nsamples = 9\nvalue = [0, 9]"] ;
47 -> 49 ;
50 [label="gini = 0.0\nsamples = 19\nvalue = [19, 0]"] ;
46 -> 50 ;
51 [label="MonthlyIncome <= 65160.0\ngini = 0.198\nsamples = 9\nvalue = [1, 8]"] ;
33 -> 51 ;
52 [label="gini = 0.0\nsamples = 8\nvalue = [0, 8]"] ;
51 -> 52 ;
53 [label="gini = 0.0\nsamples = 1\nvalue = [1, 0]"] ;
51 -> 53 ;
54 [label="YearsAtCompany <= 4.5\ngini = 0.24\nsamples = 3310\nvalue = [2849, 461]"] ;
0 -> 54 [labeldistance=2.5, labelangle=-45, headlabel="False"] ;
55 [label="Age <= 33.5\ngini = 0.317\nsamples = 1170\nvalue = [939, 231]"] ;
54 -> 55 ;
56 [label="YearsAtCompany <= 1.5\ngini = 0.406\nsamples = 466\nvalue = [334, 132]"] ;
55 -> 56 ;
57 [label="MonthlyIncome <= 51235.0\ngini = 0.5\nsamples = 51\nvalue = [26, 25]"] ;
56 -> 57 ;
58 [label="PercentSalaryHike <= 12.5\ngini = 0.43\nsamples = 32\nvalue = [22, 10]"] ;
57 -> 58 ;
59 [label="gini = 0.0\nsamples = 5\nvalue = [0, 5]"] ;
58 -> 59 ;
60 [label="TotalWorkingYears <= 10.5\ngini = 0.302\nsamples = 27\nvalue = [22, 5]"] ;
58 -> 60 ;
61 [label="MonthlyIncome <= 22620.0\ngini = 0.172\nsamples = 21\nvalue = [19, 2]"] ;
60 -> 61 ;
62 [label="gini = 0.0\nsamples = 2\nvalue = [0, 2]"] ;
61 -> 62 ;
63 [label="gini = 0.0\nsamples = 19\nvalue = [19, 0]"] ;
61 -> 63 ;
64 [label="TotalWorkingYears <= 11.64\ngini = 0.5\nsamples = 6\nvalue = [3, 3]"] ;
60 -> 64 ;
65 [label="gini = 0.0\nsamples = 3\nvalue = [0, 3]"] ;
64 -> 65 ;
66 [label="gini = 0.0\nsamples = 3\nvalue = [3, 0]"] ;
64 -> 66 ;
67 [label="TotalWorkingYears <= 13.0\ngini = 0.332\nsamples = 19\nvalue = [4, 15]"] ;
57 -> 67 ;
68 [label="PercentSalaryHike <= 21.0\ngini = 0.208\nsamples = 17\nvalue = [2, 15]"] ;
67 -> 68 ;
69 [label="gini = 0.0\nsamples = 15\nvalue = [0, 15]"] ;
68 -> 69 ;
70 [label="gini = 0.0\nsamples = 2\nvalue = [2, 0]"] ;
68 -> 70 ;
71 [label="gini = 0.0\nsamples = 2\nvalue = [2, 0]"] ;
67 -> 71 ;
72 [label="DistanceFromHome <= 6.5\ngini = 0.383\nsamples = 415\nvalue = [308, 107]"] ;
56 -> 72 ;
73 [label="PercentSalaryHike <= 24.5\ngini = 0.258\nsamples = 164\nvalue = [139, 25]"] ;
72 -> 73 ;
74 [label="PercentSalaryHike <= 14.5\ngini = 0.237\nsamples = 160\nvalue = [138, 22]"] ;
73 -> 74 ;
75 [label="MonthlyIncome <= 102010.0\ngini = 0.32\nsamples = 105\nvalue = [84, 21]"] ;
74 -> 75 ;
76 [label="MonthlyIncome <= 67635.0\ngini = 0.387\nsamples = 80\nvalue = [59, 21]"] ;
75 -> 76 ;
77 [label="YearsAtCompany <= 2.5\ngini = 0.339\nsamples = 74\nvalue = [58, 16]"] ;
76 -> 77 ;
78 [label="gini = 0.499\nsamples = 21\nvalue = [10, 11]"] ;
77 -> 78 ;
79 [label="gini = 0.171\nsamples = 53\nvalue = [48, 5]"] ;
77 -> 79 ;
80 [label="Age <= 24.5\ngini = 0.278\nsamples = 6\nvalue = [1, 5]"] ;
76 -> 80 ;
81 [label="gini = 0.0\nsamples = 1\nvalue = [1, 0]"] ;
80 -> 81 ;
82 [label="gini = 0.0\nsamples = 5\nvalue = [0, 5]"] ;
80 -> 82 ;
83 [label="gini = 0.0\nsamples = 25\nvalue = [25, 0]"] ;
75 -> 83 ;
84 [label="MonthlyIncome <= 23550.0\ngini = 0.036\nsamples = 55\nvalue = [54, 1]"] ;
74 -> 84 ;
85 [label="MonthlyIncome <= 21595.0\ngini = 0.198\nsamples = 9\nvalue = [8, 1]"] ;
84 -> 85 ;
86 [label="gini = 0.0\nsamples = 8\nvalue = [8, 0]"] ;
85 -> 86 ;
87 [label="gini = 0.0\nsamples = 1\nvalue = [0, 1]"] ;
85 -> 87 ;
88 [label="gini = 0.0\nsamples = 46\nvalue = [46, 0]"] ;
84 -> 88 ;
89 [label="TotalWorkingYears <= 5.0\ngini = 0.375\nsamples = 4\nvalue = [1, 3]"] ;
73 -> 89 ;
90 [label="gini = 0.0\nsamples = 1\nvalue = [1, 0]"] ;
89 -> 90 ;
91 [label="gini = 0.0\nsamples = 3\nvalue = [0, 3]"] ;
89 -> 91 ;
92 [label="MonthlyIncome <= 121695.0\ngini = 0.44\nsamples = 251\nvalue = [169, 82]"] ;
72 -> 92 ;
93 [label="MonthlyIncome <= 34745.0\ngini = 0.402\nsamples = 212\nvalue = [153, 59]"] ;
92 -> 93 ;
94 [label="TotalWorkingYears <= 6.5\ngini = 0.494\nsamples = 85\nvalue = [47, 38]"] ;
93 -> 94 ;
95 [label="Age <= 25.5\ngini = 0.499\nsamples = 73\nvalue = [35, 38]"] ;
94 -> 95 ;
96 [label="MonthlyIncome <= 25175.0\ngini = 0.32\nsamples = 20\nvalue = [16, 4]"] ;
95 -> 96 ;
97 [label="gini = 0.5\nsamples = 6\nvalue = [3, 3]"] ;
96 -> 97 ;
98 [label="gini = 0.133\nsamples = 14\nvalue = [13, 1]"] ;
96 -> 98 ;
99 [label="TotalWorkingYears <= 3.5\ngini = 0.46\nsamples = 53\nvalue = [19, 34]"] ;
95 -> 99 ;
100 [label="gini = 0.375\nsamples = 8\nvalue = [6, 2]"] ;
99 -> 100 ;
101 [label="gini = 0.411\nsamples = 45\nvalue = [13, 32]"] ;
99 -> 101 ;
102 [label="gini = 0.0\nsamples = 12\nvalue = [12, 0]"] ;
94 -> 102 ;
103 [label="YearsAtCompany <= 3.5\ngini = 0.276\nsamples = 127\nvalue = [106, 21]"] ;
93 -> 103 ;
104 [label="PercentSalaryHike <= 13.5\ngini = 0.366\nsamples = 87\nvalue = [66, 21]"] ;
103 -> 104 ;
105 [label="Age <= 22.5\ngini = 0.18\nsamples = 40\nvalue = [36, 4]"] ;
104 -> 105 ;
106 [label="gini = 0.426\nsamples = 13\nvalue = [9, 4]"] ;
105 -> 106 ;
107 [label="gini = 0.0\nsamples = 27\nvalue = [27, 0]"] ;
105 -> 107 ;
108 [label="TotalWorkingYears <= 4.5\ngini = 0.462\nsamples = 47\nvalue = [30, 17]"] ;
104 -> 108 ;
109 [label="gini = 0.375\nsamples = 36\nvalue = [27, 9]"] ;
108 -> 109 ;
110 [label="gini = 0.397\nsamples = 11\nvalue = [3, 8]"] ;
108 -> 110 ;
111 [label="gini = 0.0\nsamples = 40\nvalue = [40, 0]"] ;
103 -> 111 ;
112 [label="PercentSalaryHike <= 19.5\ngini = 0.484\nsamples = 39\nvalue = [16, 23]"] ;
92 -> 112 ;
113 [label="MonthlyIncome <= 191960.0\ngini = 0.383\nsamples = 31\nvalue = [8, 23]"] ;
112 -> 113 ;
114 [label="gini = 0.0\nsamples = 20\nvalue = [0, 20]"] ;
113 -> 114 ;
115 [label="PercentSalaryHike <= 16.5\ngini = 0.397\nsamples = 11\nvalue = [8, 3]"] ;
113 -> 115 ;
116 [label="gini = 0.0\nsamples = 8\nvalue = [8, 0]"] ;
115 -> 116 ;
117 [label="gini = 0.0\nsamples = 3\nvalue = [0, 3]"] ;
115 -> 117 ;
118 [label="gini = 0.0\nsamples = 8\nvalue = [8, 0]"] ;
112 -> 118 ;
119 [label="DistanceFromHome <= 19.5\ngini = 0.242\nsamples = 704\nvalue = [605, 99]"] ;
55 -> 119 ;
120 [label="DistanceFromHome <= 14.5\ngini = 0.282\nsamples = 565\nvalue = [469, 96]"] ;
119 -> 120 ;
121 [label="MonthlyIncome <= 33620.0\ngini = 0.252\nsamples = 520\nvalue = [443, 77]"] ;
120 -> 121 ;
122 [label="Age <= 48.5\ngini = 0.138\nsamples = 174\nvalue = [161, 13]"] ;
121 -> 122 ;
123 [label="TotalWorkingYears <= 2.5\ngini = 0.043\nsamples = 136\nvalue = [133, 3]"] ;
122 -> 123 ;
124 [label="PercentSalaryHike <= 15.5\ngini = 0.444\nsamples = 9\nvalue = [6, 3]"] ;
123 -> 124 ;
125 [label="gini = 0.0\nsamples = 6\nvalue = [6, 0]"] ;
124 -> 125 ;
126 [label="gini = 0.0\nsamples = 3\nvalue = [0, 3]"] ;
124 -> 126 ;
127 [label="gini = 0.0\nsamples = 127\nvalue = [127, 0]"] ;
123 -> 127 ;
128 [label="YearsAtCompany <= 3.5\ngini = 0.388\nsamples = 38\nvalue = [28, 10]"] ;
122 -> 128 ;
129 [label="TotalWorkingYears <= 3.5\ngini = 0.147\nsamples = 25\nvalue = [23, 2]"] ;
128 -> 129 ;
130 [label="gini = 0.0\nsamples = 2\nvalue = [0, 2]"] ;
129 -> 130 ;
131 [label="gini = 0.0\nsamples = 23\nvalue = [23, 0]"] ;
129 -> 131 ;
132 [label="TotalWorkingYears <= 19.0\ngini = 0.473\nsamples = 13\nvalue = [5, 8]"] ;
128 -> 132 ;
133 [label="gini = 0.0\nsamples = 6\nvalue = [0, 6]"] ;
132 -> 133 ;
134 [label="Age <= 51.5\ngini = 0.408\nsamples = 7\nvalue = [5, 2]"] ;
132 -> 134 ;
135 [label="gini = 0.0\nsamples = 2\nvalue = [0, 2]"] ;
134 -> 135 ;
136 [label="gini = 0.0\nsamples = 5\nvalue = [5, 0]"] ;
134 -> 136 ;
137 [label="YearsAtCompany <= 1.5\ngini = 0.302\nsamples = 346\nvalue = [282, 64]"] ;
121 -> 137 ;
138 [label="Age <= 39.5\ngini = 0.402\nsamples = 140\nvalue = [101, 39]"] ;
137 -> 138 ;
139 [label="Age <= 38.5\ngini = 0.491\nsamples = 51\nvalue = [29, 22]"] ;
138 -> 139 ;
140 [label="DistanceFromHome <= 7.5\ngini = 0.439\nsamples = 43\nvalue = [29, 14]"] ;
139 -> 140 ;
141 [label="gini = 0.489\nsamples = 33\nvalue = [19, 14]"] ;
140 -> 141 ;
142 [label="gini = 0.0\nsamples = 10\nvalue = [10, 0]"] ;
140 -> 142 ;
143 [label="gini = 0.0\nsamples = 8\nvalue = [0, 8]"] ;
139 -> 143 ;
144 [label="PercentSalaryHike <= 13.5\ngini = 0.309\nsamples = 89\nvalue = [72, 17]"] ;
138 -> 144 ;
145 [label="TotalWorkingYears <= 6.5\ngini = 0.057\nsamples = 34\nvalue = [33, 1]"] ;
144 -> 145 ;
146 [label="gini = 0.375\nsamples = 4\nvalue = [3, 1]"] ;
145 -> 146 ;
147 [label="gini = 0.0\nsamples = 30\nvalue = [30, 0]"] ;
145 -> 147 ;
148 [label="Age <= 57.0\ngini = 0.413\nsamples = 55\nvalue = [39, 16]"] ;
144 -> 148 ;
149 [label="gini = 0.375\nsamples = 52\nvalue = [39, 13]"] ;
148 -> 149 ;
150 [label="gini = 0.0\nsamples = 3\nvalue = [0, 3]"] ;
148 -> 150 ;
151 [label="MonthlyIncome <= 33980.0\ngini = 0.213\nsamples = 206\nvalue = [181, 25]"] ;
137 -> 151 ;
152 [label="gini = 0.0\nsamples = 3\nvalue = [0, 3]"] ;
151 -> 152 ;
153 [label="TotalWorkingYears <= 7.5\ngini = 0.193\nsamples = 203\nvalue = [181, 22]"] ;
151 -> 153 ;
154 [label="TotalWorkingYears <= 6.5\ngini = 0.346\nsamples = 72\nvalue = [56, 16]"] ;
153 -> 154 ;
155 [label="gini = 0.204\nsamples = 52\nvalue = [46, 6]"] ;
154 -> 155 ;
156 [label="gini = 0.5\nsamples = 20\nvalue = [10, 10]"] ;
154 -> 156 ;
157 [label="PercentSalaryHike <= 11.5\ngini = 0.087\nsamples = 131\nvalue = [125, 6]"] ;
153 -> 157 ;
158 [label="gini = 0.355\nsamples = 13\nvalue = [10, 3]"] ;
157 -> 158 ;
159 [label="gini = 0.05\nsamples = 118\nvalue = [115, 3]"] ;
157 -> 159 ;
160 [label="PercentSalaryHike <= 20.0\ngini = 0.488\nsamples = 45\nvalue = [26, 19]"] ;
120 -> 160 ;
161 [label="MonthlyIncome <= 139620.0\ngini = 0.455\nsamples = 40\nvalue = [26, 14]"] ;
160 -> 161 ;
162 [label="MonthlyIncome <= 45765.0\ngini = 0.418\nsamples = 37\nvalue = [26, 11]"] ;
161 -> 162 ;
163 [label="MonthlyIncome <= 34055.0\ngini = 0.491\nsamples = 23\nvalue = [13, 10]"] ;
162 -> 163 ;
164 [label="gini = 0.0\nsamples = 8\nvalue = [8, 0]"] ;
163 -> 164 ;
165 [label="TotalWorkingYears <= 17.0\ngini = 0.444\nsamples = 15\nvalue = [5, 10]"] ;
163 -> 165 ;
166 [label="gini = 0.0\nsamples = 10\nvalue = [0, 10]"] ;
165 -> 166 ;
167 [label="gini = 0.0\nsamples = 5\nvalue = [5, 0]"] ;
165 -> 167 ;
168 [label="Age <= 35.0\ngini = 0.133\nsamples = 14\nvalue = [13, 1]"] ;
162 -> 168 ;
169 [label="gini = 0.0\nsamples = 1\nvalue = [0, 1]"] ;
168 -> 169 ;
170 [label="gini = 0.0\nsamples = 13\nvalue = [13, 0]"] ;
168 -> 170 ;
171 [label="gini = 0.0\nsamples = 3\nvalue = [0, 3]"] ;
161 -> 171 ;
172 [label="gini = 0.0\nsamples = 5\nvalue = [0, 5]"] ;
160 -> 172 ;
173 [label="MonthlyIncome <= 21010.0\ngini = 0.042\nsamples = 139\nvalue = [136, 3]"] ;
119 -> 173 ;
174 [label="TotalWorkingYears <= 7.5\ngini = 0.469\nsamples = 8\nvalue = [5, 3]"] ;
173 -> 174 ;
175 [label="gini = 0.0\nsamples = 3\nvalue = [0, 3]"] ;
174 -> 175 ;
176 [label="gini = 0.0\nsamples = 5\nvalue = [5, 0]"] ;
174 -> 176 ;
177 [label="gini = 0.0\nsamples = 131\nvalue = [131, 0]"] ;
173 -> 177 ;
178 [label="TotalWorkingYears <= 39.0\ngini = 0.192\nsamples = 2140\nvalue = [1910, 230]"] ;
54 -> 178 ;
179 [label="Age <= 26.5\ngini = 0.189\nsamples = 2136\nvalue = [1910, 226]"] ;
178 -> 179 ;
180 [label="DistanceFromHome <= 20.5\ngini = 0.36\nsamples = 106\nvalue = [81, 25]"] ;
179 -> 180 ;
181 [label="MonthlyIncome <= 83085.0\ngini = 0.307\nsamples = 95\nvalue = [77, 18]"] ;
180 -> 181 ;
182 [label="MonthlyIncome <= 58810.0\ngini = 0.414\nsamples = 58\nvalue = [41, 17]"] ;
181 -> 182 ;
183 [label="Age <= 23.5\ngini = 0.198\nsamples = 45\nvalue = [40, 5]"] ;
182 -> 183 ;
184 [label="gini = 0.0\nsamples = 3\nvalue = [0, 3]"] ;
183 -> 184 ;
185 [label="PercentSalaryHike <= 20.0\ngini = 0.091\nsamples = 42\nvalue = [40, 2]"] ;
183 -> 185 ;
186 [label="gini = 0.0\nsamples = 35\nvalue = [35, 0]"] ;
185 -> 186 ;
187 [label="Age <= 24.5\ngini = 0.408\nsamples = 7\nvalue = [5, 2]"] ;
185 -> 187 ;
188 [label="gini = 0.5\nsamples = 4\nvalue = [2, 2]"] ;
187 -> 188 ;
189 [label="gini = 0.0\nsamples = 3\nvalue = [3, 0]"] ;
187 -> 189 ;
190 [label="YearsAtCompany <= 7.5\ngini = 0.142\nsamples = 13\nvalue = [1, 12]"] ;
182 -> 190 ;
191 [label="gini = 0.0\nsamples = 12\nvalue = [0, 12]"] ;
190 -> 191 ;
192 [label="gini = 0.0\nsamples = 1\nvalue = [1, 0]"] ;
190 -> 192 ;
193 [label="YearsAtCompany <= 7.5\ngini = 0.053\nsamples = 37\nvalue = [36, 1]"] ;
181 -> 193 ;
194 [label="gini = 0.0\nsamples = 33\nvalue = [33, 0]"] ;
193 -> 194 ;
195 [label="PercentSalaryHike <= 16.0\ngini = 0.375\nsamples = 4\nvalue = [3, 1]"] ;
193 -> 195 ;
196 [label="gini = 0.0\nsamples = 1\nvalue = [0, 1]"] ;
195 -> 196 ;
197 [label="gini = 0.0\nsamples = 3\nvalue = [3, 0]"] ;
195 -> 197 ;
198 [label="DistanceFromHome <= 27.5\ngini = 0.463\nsamples = 11\nvalue = [4, 7]"] ;
180 -> 198 ;
199 [label="gini = 0.0\nsamples = 7\nvalue = [0, 7]"] ;
198 -> 199 ;
200 [label="gini = 0.0\nsamples = 4\nvalue = [4, 0]"] ;
198 -> 200 ;
201 [label="PercentSalaryHike <= 24.5\ngini = 0.178\nsamples = 2030\nvalue = [1829, 201]"] ;
179 -> 201 ;
202 [label="MonthlyIncome <= 10450.0\ngini = 0.173\nsamples = 2006\nvalue = [1814, 192]"] ;
201 -> 202 ;
203 [label="gini = 0.0\nsamples = 2\nvalue = [0, 2]"] ;
202 -> 203 ;
204 [label="MonthlyIncome <= 74370.0\ngini = 0.172\nsamples = 2004\nvalue = [1814, 190]"] ;
202 -> 204 ;
205 [label="MonthlyIncome <= 74200.0\ngini = 0.198\nsamples = 1427\nvalue = [1268, 159]"] ;
204 -> 205 ;
206 [label="TotalWorkingYears <= 18.5\ngini = 0.195\nsamples = 1424\nvalue = [1268, 156]"] ;
205 -> 206 ;
207 [label="Age <= 27.5\ngini = 0.221\nsamples = 1096\nvalue = [957, 139]"] ;
206 -> 207 ;
208 [label="gini = 0.0\nsamples = 56\nvalue = [56, 0]"] ;
207 -> 208 ;
209 [label="gini = 0.232\nsamples = 1040\nvalue = [901, 139]"] ;
207 -> 209 ;
210 [label="MonthlyIncome <= 17245.0\ngini = 0.098\nsamples = 328\nvalue = [311, 17]"] ;
206 -> 210 ;
211 [label="gini = 0.0\nsamples = 1\nvalue = [0, 1]"] ;
210 -> 211 ;
212 [label="gini = 0.093\nsamples = 327\nvalue = [311, 16]"] ;
210 -> 212 ;
213 [label="gini = 0.0\nsamples = 3\nvalue = [0, 3]"] ;
205 -> 213 ;
214 [label="YearsAtCompany <= 21.5\ngini = 0.102\nsamples = 577\nvalue = [546, 31]"] ;
204 -> 214 ;
215 [label="TotalWorkingYears <= 12.5\ngini = 0.087\nsamples = 547\nvalue = [522, 25]"] ;
214 -> 215 ;
216 [label="Age <= 45.5\ngini = 0.132\nsamples = 338\nvalue = [314, 24]"] ;
215 -> 216 ;
217 [label="gini = 0.1\nsamples = 322\nvalue = [305, 17]"] ;
216 -> 217 ;
218 [label="gini = 0.492\nsamples = 16\nvalue = [9, 7]"] ;
216 -> 218 ;
219 [label="MonthlyIncome <= 192590.0\ngini = 0.01\nsamples = 209\nvalue = [208, 1]"] ;
215 -> 219 ;
220 [label="gini = 0.0\nsamples = 188\nvalue = [188, 0]"] ;
219 -> 220 ;
221 [label="gini = 0.091\nsamples = 21\nvalue = [20, 1]"] ;
219 -> 221 ;
222 [label="Age <= 41.5\ngini = 0.32\nsamples = 30\nvalue = [24, 6]"] ;
214 -> 222 ;
223 [label="gini = 0.0\nsamples = 3\nvalue = [0, 3]"] ;
222 -> 223 ;
224 [label="PercentSalaryHike <= 11.5\ngini = 0.198\nsamples = 27\nvalue = [24, 3]"] ;
222 -> 224 ;
225 [label="gini = 0.0\nsamples = 3\nvalue = [0, 3]"] ;
224 -> 225 ;
226 [label="gini = 0.0\nsamples = 24\nvalue = [24, 0]"] ;
224 -> 226 ;
227 [label="Age <= 44.5\ngini = 0.469\nsamples = 24\nvalue = [15, 9]"] ;
201 -> 227 ;
228 [label="YearsAtCompany <= 5.5\ngini = 0.278\nsamples = 18\nvalue = [15, 3]"] ;
227 -> 228 ;
229 [label="gini = 0.0\nsamples = 3\nvalue = [0, 3]"] ;
228 -> 229 ;
230 [label="gini = 0.0\nsamples = 15\nvalue = [15, 0]"] ;
228 -> 230 ;
231 [label="gini = 0.0\nsamples = 6\nvalue = [0, 6]"] ;
227 -> 231 ;
232 [label="gini = 0.0\nsamples = 4\nvalue = [0, 4]"] ;
178 -> 232 ;
}